[[ 0.65745114  0.14425512 -1.79427   ]
 [-0.03524329  0.24710208 -0.07059968]
 [ 0.48239166  0.32089427 -0.45019789]
 [ 0.16540296 -0.05349435 -1.25073738]
 [-0.21074409 -0.17237489 -1.91752497]
 [ 0.1493442  -0.3851262  -1.16213686]
 [ 0.39140878 -0.38771482 -1.11331532]
 [-0.40822103  0.07512688 -1.23542004]
 [-0.54022046 -0.1764329   0.05714243]
 [ 2.01876928  0.00929834 -0.38265332]
 [-1.94346181 -0.07667878 -1.36149709]
 [-2.06569989 -0.3128263  -1.38618455]
 [ 0.12168341  0.07832573 -1.25647874]
 [-0.04092914  0.17642372 -1.57492085]
 [-1.62091483  0.06046638 -1.60990735]
 [ 1.37162451 -0.06105081 -0.36361915]
 [ 2.34824239 -0.35572073  0.27950922]
 [ 0.1670239   0.27843417 -0.14437638]
 [ 1.12915359 -0.05438811 -1.63318025]
 [ 0.19713219 -0.32312155 -1.19756851]
 [ 0.63953618 -0.22278638 -1.07132357]
 [ 0.49691269 -0.0042471  -1.38538132]
 [ 0.82366009 -0.22216748 -1.35073532]
 [ 1.22968283 -0.27860136 -1.47136492]
 [ 0.34587111 -0.1085287  -1.31113629]
 [ 0.22642106 -0.27965272 -1.51376619]
 [ 0.27965672  0.23504607 -0.29147925]
 [ 1.46655095 -0.26022286 -0.29118474]
 [-2.39455335 -0.03609285 -1.4617369 ]
 [ 2.35090794 -0.0666661   0.01670332]
 [ 1.67790975  0.05544961 -0.30048195]
 [ 2.01699134  0.12263617 -0.50019152]
 [-2.06411657  0.11775106 -1.34608401]
 [ 1.96105883  0.17597661 -0.0139153 ]
 [ 0.1644506  -0.32839611 -0.69774886]
 [-0.58354648 -0.03706572 -0.46912705]]
[[-1.95656514 -5.64852671  5.3014257 ]
 [ 0.2863357   0.87732938  0.33289128]
 [ 0.5545912   0.7106586  -0.14129652]]
